{
  "main_model": {
    "weights": [
      [
        [
          0.1466764867169036,
          0.20072392752360046,
          0.314004088489801,
          0.126368344663483,
          0.1952459746987275,
          0.33084611609445835,
          0.08227007049946733,
          -0.3058823326850033,
          0.42516787540862866,
          -0.5161997514679695,
          -0.16860657821083253,
          -0.036021984625257186
        ],
        [
          0.28361534834086644,
          -0.1409556507147972,
          0.34157447513017025,
          0.21468238152817865,
          -0.3745431270319764,
          -0.09927309928453604,
          -0.440599832175084,
          -0.1681086833075487,
          0.015427471532369896,
          -0.006832438143399289,
          0.5392542538169818,
          -0.3390535291751926
        ],
        [
          -0.015034584596607337,
          0.06904342058514856,
          0.27751486702909556,
          -0.03424404106486878,
          0.4324896315921254,
          0.3506057642981446,
          0.4136186353387502,
          -0.2922447745079368,
          0.24747485395886104,
          -0.1339988485062758,
          0.48558886482998354,
          -0.48614454629197557
        ],
        [
          0.35361153365841114,
          -0.1310984956427645,
          -0.3866833424898334,
          0.3762737551385983,
          0.5007296033912081,
          -0.0014776919803709543,
          0.5256721222290954,
          0.05848035000404761,
          0.13037361940193026,
          -0.5240503275685194,
          0.3183330075431722,
          -0.1781603827717017
        ],
        [
          0.3204728797405151,
          -0.20059915757070867,
          -0.14064997762695164,
          0.167529850981892,
          0.3941215478868805,
          -0.4190499148442637,
          0.5285244353144087,
          -0.42538366464579913,
          -0.03584614303906131,
          -0.162848105111366,
          0.48769618838619455,
          -0.4727778807547097
        ],
        [
          0.23069099026683648,
          -0.18767971742143985,
          -0.25881647891833187,
          0.31263849309449665,
          -0.2075568920780455,
          -0.34466129393213163,
          0.4662505371108894,
          -0.5345453092710962,
          -0.0002607632321663944,
          -0.027043525093401022,
          -0.3426769295873034,
          0.44049428429009096
        ],
        [
          -0.05519303375497381,
          0.21554330878367145,
          0.5350425166712176,
          0.49970882815062523,
          -0.4381922001130459,
          -0.0007111845623480884,
          -0.3132903309653442,
          0.21415710926547538,
          -0.31663187750523525,
          0.3748965171229237,
          -0.4165157412608088,
          -0.4089824908481231
        ],
        [
          0.38224929797190954,
          0.21533467801881578,
          0.3523735805611806,
          -0.32458171015655846,
          0.057543415030043676,
          0.5075132987876052,
          0.42556792802323196,
          -0.4426571395320642,
          -0.2246910202336201,
          0.42708166458789554,
          -0.29226567910198314,
          -0.10844074639290241
        ]
      ],
      [
        [
          0.32938980682440655,
          -0.5406295306451941,
          -0.3201330697917385,
          -0.46799525756895133,
          -0.07409065939036286,
          0.41699133667447474,
          0.14112870158171076,
          -0.26195655560418785
        ],
        [
          0.06703894777873076,
          0.01668453080470922,
          0.2648887253304284,
          0.3858804510755507,
          0.5343940875227651,
          -0.0025832687133601206,
          -0.3808414248583855,
          0.06407822296464116
        ],
        [
          0.2383775496573416,
          0.10487290888139345,
          -0.12930172339193657,
          0.2382058941934091,
          -0.4151046334896097,
          0.40529150869259833,
          -0.07053778043081949,
          0.24782256752844212
        ],
        [
          -0.2579716942029542,
          0.3950816382045982,
          -0.042435071256124,
          -0.2625970377125207,
          -0.2627139748410836,
          0.2692408090733194,
          0.22831581088645858,
          0.5269131735446257
        ],
        [
          -0.19651952178399323,
          0.4790336235260235,
          0.04211584853301065,
          0.3507956544525679,
          -0.027107686233973416,
          0.3485868586667802,
          0.3861981836751375,
          0.08278311006399697
        ],
        [
          0.24674313075630472,
          0.3543988962830239,
          0.23402201901719255,
          -0.12564791261694286,
          -0.34304995131481475,
          -0.37474632881511205,
          0.42256488108808343,
          0.07177528179710779
        ],
        [
          0.12033406464285923,
          -0.3946081115958844,
          -0.20301855651257328,
          -0.3729652141679546,
          -0.16473037596150253,
          0.2117261190188482,
          -0.28554283212032133,
          -0.08674463097320251
        ],
        [
          -0.44214903879443934,
          -0.4656009208620625,
          -0.3930241874103151,
          -0.5043162336216785,
          0.47637152094128643,
          0.30535465344623447,
          0.22666602918698986,
          0.3135086191069062
        ],
        [
          0.3207147349014553,
          0.5184956658940827,
          0.21306761239218353,
          -0.10598743578177078,
          0.36009102574044516,
          -0.38532697966981244,
          -0.2590989036326508,
          -0.08707045606227354
        ],
        [
          -0.12701115911031963,
          -0.34703990814739727,
          0.22429558794489912,
          -0.32863973387829526,
          -0.31569891274725775,
          -0.11586931012309548,
          -0.13309888871389103,
          0.25993802353665574
        ],
        [
          0.06070793845436784,
          -0.47096353100072497,
          -0.19328552023198547,
          -0.007881020520852267,
          -0.03395866773924239,
          0.21241711724008805,
          0.1760648207620248,
          0.15517102991115417
        ],
        [
          -0.34797004052890607,
          0.5151618986600572,
          -0.5200538163445577,
          -0.32373882777354873,
          -0.3029092322772031,
          -0.20299278156930017,
          -0.5050689431798621,
          0.4417929649190856
        ]
      ],
      [
        [
          6124.131663085597
        ],
        [
          -5385.106704895296
        ],
        [
          -5110.605224663642
        ],
        [
          5024.859058959396
        ],
        [
          -4489.567165393602
        ],
        [
          -2754.118819560773
        ],
        [
          -2769.6050676714053
        ],
        [
          9590.788216504834
        ]
      ]
    ],
    "biases": [
      [
        0.08127420910620331,
        0.04460683073797134,
        -0.012835274903257837,
        -0.06098618781376293,
        0.09962405293731666,
        -0.07951342633426173,
        -0.03361520303009394,
        -0.008240359103886319,
        0.04318601632548766,
        0.056293200581914726,
        0.07691955449292506,
        0.027885994802980707
      ],
      [
        -0.020057662955935474,
        -0.021928985046734906,
        -0.04093029236488437,
        0.035087639706652046,
        -0.04261826036113386,
        0.0726911047468288,
        0.06075275175302822,
        0.00102340338350633
      ],
      [
        -321.23113943555427
      ]
    ]
  },
  "high_receipt_model": {
    "weights": [
      [
        [
          0.0008683928802147856,
          -0.3087505634051268,
          0.49907671531243436,
          0.327527255735261,
          -0.22036129343891292,
          0.29351697344092675,
          0.22544368191741304,
          -0.20003835670000614,
          -0.34149940549568236,
          -0.45953148596577387
        ],
        [
          0.06172855483855322,
          0.12047379429213845,
          0.550369950690211,
          0.4532523939280996,
          0.4959488752583069,
          0.0017380108717665044,
          -0.4542376056450689,
          0.09990397328878775,
          0.3078820738479998,
          -0.2826028992847583
        ],
        [
          0.09494509060126544,
          0.47015249688666805,
          -0.3884297449551427,
          -0.5631886358971346,
          -0.1658853946756209,
          -0.07968681810768674,
          -0.27125753028842026,
          0.06900933956995337,
          -0.1165662736142064,
          0.38157915123604114
        ],
        [
          0.07913206421736796,
          0.33732810555642934,
          -0.5337460290402185,
          -0.5015756953878945,
          -0.04005407454814558,
          0.1396987259855803,
          -0.2889421008856002,
          -0.22135879338224934,
          -0.44087400188642,
          0.2013726537140641
        ],
        [
          0.4808596238849646,
          -0.33512542653893523,
          -0.18183980759431873,
          -0.14479861927530407,
          0.17239619905126813,
          -0.2971520126707134,
          -0.3955435158061011,
          0.37808307964193666,
          -0.22231142082189015,
          -0.01209038419020847
        ],
        [
          0.11571142165532511,
          0.31721545749283586,
          0.25744091521593904,
          0.13736234189671492,
          -0.36434857504948126,
          -0.3115435592255689,
          -0.5606813226923535,
          0.3363684560446595,
          0.4059457984486149,
          -0.12423587797820018
        ],
        [
          -0.5438476140443365,
          -0.47140508622775085,
          -0.20327153385672347,
          -0.5280693514500377,
          -0.20437257307972828,
          -0.19420632778850994,
          -0.509353943121319,
          -0.2607551187047335,
          0.009498394143608535,
          0.1000048322386885
        ]
      ],
      [
        [
          0.374374729657479,
          -0.5761628227763176,
          -0.5349654654720122,
          -0.45962863946731575,
          0.11923741537400767,
          -0.5755169467370249
        ],
        [
          -0.38096185236358715,
          0.07333789185659811,
          0.23055245098669985,
          0.41304267522842486,
          -0.10461335024481189,
          0.4315777186098506
        ],
        [
          0.17663463431947612,
          0.22578534307817788,
          -0.1136437229192927,
          0.577503920750801,
          0.5164699817102341,
          0.05623756547421066
        ],
        [
          0.23844013647211015,
          0.11004446890939101,
          0.13298961602719728,
          -0.3532359800576119,
          0.5795689968914832,
          0.17656398679294927
        ],
        [
          -0.044391613053062606,
          -0.5100259926751433,
          0.0805897632915561,
          -0.36179066850329156,
          0.07744906429261977,
          -0.12331784325803086
        ],
        [
          -0.1850298031470457,
          -0.5409201705481204,
          0.5160462650313979,
          0.07117567104326883,
          -0.5822048772330671,
          0.10270884323978524
        ],
        [
          -0.11694675369694224,
          -0.021312941289278076,
          0.47454013170197396,
          0.5561859372161873,
          -0.2544935776131015,
          -0.39772271796681213
        ],
        [
          -0.004337757356567273,
          0.054459992231825294,
          -0.15926567311255008,
          0.5931065788476801,
          0.4311039788237734,
          0.3936227005045785
        ],
        [
          -0.5361727450586263,
          0.5948736437785165,
          0.5455745929522309,
          0.033894112018625244,
          0.590136111012602,
          0.29842966578223906
        ],
        [
          -0.059227629915434954,
          0.3160835664009476,
          0.6042579042353786,
          -0.2113799808780945,
          -0.153786965928341,
          0.5405605109832989
        ]
      ],
      [
        [
          6536.840414224706
        ],
        [
          1000.3184401368117
        ],
        [
          753.6215159441186
        ],
        [
          -3082.4144802609094
        ],
        [
          -3035.5733547437044
        ],
        [
          2770.1746555717464
        ]
      ]
    ],
    "biases": [
      [
        -0.07319290892479649,
        0.09418871624931613,
        0.03246728654052661,
        0.011657624980386583,
        -0.039893155132359075,
        -0.07311437929003413,
        -0.0360022612228567,
        0.04571859872225148,
        0.09307905612847137,
        -0.005891846213551613
      ],
      [
        -0.0737809262178051,
        -0.07180358165697459,
        0.0029502300284661997,
        -0.04168385016456247,
        0.01640337102904607,
        -0.09656169419117402
      ],
      [
        74.56920257194301
      ]
    ]
  },
  "high_receipt_threshold": 1000
}